<?xml version="1.0"?>
<opencv_storage>
<stage1>
  <maxWeakCount>11</maxWeakCount>
  <stageThreshold>-1.6195647716522217e+00</stageThreshold>
  <weakClassifiers>
    <_>
      <internalNodes>
        0 -1 171987 -3.0617218464612961e-02</internalNodes>
      <leafValues>
        5.6951594352722168e-01 -4.9334874749183655e-01</leafValues></_>
    <_>
      <internalNodes>
        0 -1 67942 -6.7207264900207520e-01</internalNodes>
      <leafValues>
        -5.6860250234603882e-01 3.7548425793647766e-01</leafValues></_>
    <_>
      <internalNodes>
        0 -1 178324 -2.9850483406335115e-04</internalNodes>
      <leafValues>
        3.2589539885520935e-01 -6.1172479391098022e-01</leafValues></_>
    <_>
      <internalNodes>
        0 -1 151749 -2.4092528037726879e-03</internalNodes>
      <leafValues>
        4.4964128732681274e-01 -4.2797732353210449e-01</leafValues></_>
    <_>
      <internalNodes>
        0 -1 66862 -3.8448646664619446e-02</internalNodes>
      <leafValues>
        5.6617558002471924e-01 -2.5263890624046326e-01</leafValues></_>
    <_>
      <internalNodes>
        0 -1 137571 -1.2898558750748634e-02</internalNodes>
      <leafValues>
        6.0286700725555420e-01 -2.1824419498443604e-01</leafValues></_>
    <_>
      <internalNodes>
        0 -1 153171 1.1733146384358406e-03</internalNodes>
      <leafValues>
        -2.8109854459762573e-01 5.7336622476577759e-01</leafValues></_>
    <_>
      <internalNodes>
        0 -1 210382 -3.4966617822647095e-02</internalNodes>
      <leafValues>
        -7.5514215230941772e-01 2.3840878903865814e-01</leafValues></_>
    <_>
      <internalNodes>
        0 -1 178316 4.3430025107227266e-04</internalNodes>
      <leafValues>
        -3.5432302951812744e-01 4.0965792536735535e-01</leafValues></_>
    <_>
      <internalNodes>
        0 -1 177880 5.9503419324755669e-03</internalNodes>
      <leafValues>
        1.7407837510108948e-01 -7.1740603446960449e-01</leafValues></_>
    <_>
      <internalNodes>
        0 -1 200078 1.1535284575074911e-03</internalNodes>
      <leafValues>
        -3.7279242277145386e-01 2.9828760027885437e-01</leafValues></_></weakClassifiers></stage1>
</opencv_storage>
