<?xml version="1.0"?>
<opencv_storage>
<stage0>
  <maxWeakCount>10</maxWeakCount>
  <stageThreshold>-1.9202076196670532e+00</stageThreshold>
  <weakClassifiers>
    <_>
      <internalNodes>
        0 -1 147546 1.2192677706480026e-02</internalNodes>
      <leafValues>
        -6.1385506391525269e-01 5.7581067085266113e-01</leafValues></_>
    <_>
      <internalNodes>
        0 -1 164572 1.2162002967670560e-03</internalNodes>
      <leafValues>
        -6.6461628675460815e-01 4.7238162159919739e-01</leafValues></_>
    <_>
      <internalNodes>
        0 -1 209057 -1.3710187748074532e-02</internalNodes>
      <leafValues>
        -8.3661377429962158e-01 3.0284824967384338e-01</leafValues></_>
    <_>
      <internalNodes>
        0 -1 83066 -4.7775782644748688e-02</internalNodes>
      <leafValues>
        6.7574423551559448e-01 -2.8814688324928284e-01</leafValues></_>
    <_>
      <internalNodes>
        0 -1 139783 4.0000448934733868e-03</internalNodes>
      <leafValues>
        -3.2980644702911377e-01 5.1527523994445801e-01</leafValues></_>
    <_>
      <internalNodes>
        0 -1 111380 -2.1099658682942390e-02</internalNodes>
      <leafValues>
        6.4344412088394165e-01 -2.7256268262863159e-01</leafValues></_>
    <_>
      <internalNodes>
        0 -1 137571 -8.0157406628131866e-03</internalNodes>
      <leafValues>
        5.4832148551940918e-01 -2.6063451170921326e-01</leafValues></_>
    <_>
      <internalNodes>
        0 -1 211666 2.5352982338517904e-03</internalNodes>
      <leafValues>
        -2.4285683035850525e-01 6.9100040197372437e-01</leafValues></_>
    <_>
      <internalNodes>
        0 -1 151046 -2.6580303907394409e-02</internalNodes>
      <leafValues>
        -9.4785094261169434e-01 1.6152401268482208e-01</leafValues></_>
    <_>
      <internalNodes>
        0 -1 175910 5.2411633078008890e-04</internalNodes>
      <leafValues>
        -4.9130523204803467e-01 2.8789877891540527e-01</leafValues></_></weakClassifiers></stage0>
</opencv_storage>
