<?xml version="1.0"?>
<opencv_storage>
<stage3>
  <maxWeakCount>20</maxWeakCount>
  <stageThreshold>-1.6598155498504639e+00</stageThreshold>
  <weakClassifiers>
    <_>
      <internalNodes>
        0 -1 146571 1.4925977215170860e-02</internalNodes>
      <leafValues>
        -5.2425873279571533e-01 3.9309209585189819e-01</leafValues></_>
    <_>
      <internalNodes>
        0 -1 151399 1.7690872773528099e-03</internalNodes>
      <leafValues>
        -5.1250010728836060e-01 2.3129719495773315e-01</leafValues></_>
    <_>
      <internalNodes>
        0 -1 60608 1.6331072896718979e-02</internalNodes>
      <leafValues>
        -2.6780629158020020e-01 4.3581101298332214e-01</leafValues></_>
    <_>
      <internalNodes>
        0 -1 211588 -3.0698079615831375e-02</internalNodes>
      <leafValues>
        -4.7849300503730774e-01 2.2074843943119049e-01</leafValues></_>
    <_>
      <internalNodes>
        0 -1 164851 -1.0170473251491785e-03</internalNodes>
      <leafValues>
        2.1746814250946045e-01 -4.4844383001327515e-01</leafValues></_>
    <_>
      <internalNodes>
        0 -1 61108 -2.2848494350910187e-02</internalNodes>
      <leafValues>
        -8.0020403861999512e-01 1.3228154182434082e-01</leafValues></_>
    <_>
      <internalNodes>
        0 -1 169489 -3.9189523085951805e-03</internalNodes>
      <leafValues>
        5.3516578674316406e-01 -2.2616672515869141e-01</leafValues></_>
    <_>
      <internalNodes>
        0 -1 211605 -3.1924173235893250e-03</internalNodes>
      <leafValues>
        3.7895765900611877e-01 -2.3813906311988831e-01</leafValues></_>
    <_>
      <internalNodes>
        0 -1 69790 -4.8579731956124306e-03</internalNodes>
      <leafValues>
        5.5018538236618042e-01 -1.9550199806690216e-01</leafValues></_>
    <_>
      <internalNodes>
        0 -1 134717 4.9470271915197372e-03</internalNodes>
      <leafValues>
        -2.5001978874206543e-01 3.4468773007392883e-01</leafValues></_>
    <_>
      <internalNodes>
        0 -1 137571 -1.3440772891044617e-02</internalNodes>
      <leafValues>
        5.6372946500778198e-01 -1.9302248954772949e-01</leafValues></_>
    <_>
      <internalNodes>
        0 -1 152045 -2.2606390994042158e-03</internalNodes>
      <leafValues>
        4.4159075617790222e-01 -2.7410501241683960e-01</leafValues></_>
    <_>
      <internalNodes>
        0 -1 32718 -2.8761191293597221e-02</internalNodes>
      <leafValues>
        5.1238697767257690e-01 -1.7719428241252899e-01</leafValues></_>
    <_>
      <internalNodes>
        0 -1 201221 -7.0996945723891258e-03</internalNodes>
      <leafValues>
        -7.0483314990997314e-01 1.3796830177307129e-01</leafValues></_>
    <_>
      <internalNodes>
        0 -1 64512 7.3490021750330925e-03</internalNodes>
      <leafValues>
        -1.7067836225032806e-01 6.0609340667724609e-01</leafValues></_>
    <_>
      <internalNodes>
        0 -1 165442 -1.0585954412817955e-02</internalNodes>
      <leafValues>
        -4.0581038594245911e-01 2.3526275157928467e-01</leafValues></_>
    <_>
      <internalNodes>
        0 -1 256540 -6.5129786729812622e-02</internalNodes>
      <leafValues>
        5.4542005062103271e-01 -1.6806644201278687e-01</leafValues></_>
    <_>
      <internalNodes>
        0 -1 260744 -2.9493831098079681e-03</internalNodes>
      <leafValues>
        6.9737738370895386e-01 -1.0314259678125381e-01</leafValues></_>
    <_>
      <internalNodes>
        0 -1 153788 -5.3460106253623962e-02</internalNodes>
      <leafValues>
        -8.5111761093139648e-01 1.3117204606533051e-01</leafValues></_>
    <_>
      <internalNodes>
        0 -1 5483 1.0001342743635178e-02</internalNodes>
      <leafValues>
        -1.9631160795688629e-01 4.7476246953010559e-01</leafValues></_></weakClassifiers></stage3>
</opencv_storage>
